digraph Tree {
node [shape=box] ;
0 [label="加班时长=1 <= 0.5\nentropy = 0.971\nsamples = 10\nvalue = [6, 4]"] ;
1 [label="薪资=20000左右 <= 0.5\nentropy = 0.9852\nsamples = 7\nvalue = [3, 4]"] ;
0 -> 1 [labeldistance=2.5, labelangle=45, headlabel="True"] ;
2 [label="entropy = 0.0\nsamples = 4\nvalue = [0, 4]"] ;
1 -> 2 ;
3 [label="entropy = 0.0\nsamples = 3\nvalue = [3, 0]"] ;
1 -> 3 ;
4 [label="entropy = 0.0\nsamples = 3\nvalue = [3, 0]"] ;
0 -> 4 [labeldistance=2.5, labelangle=-45, headlabel="False"] ;
}